16
16
8
10
0.534440385
-1.203812467
-1.645529319
0.084152602
-0.310049204
-1.967003174
0.203885085
0.738247075
-0.287941121
0.767748753
-0.179083198
2.718365660
-1.248662896
0.127411417
0.484485269
-1.331663852
-1.365265452
0.624869750
-0.064907072
-0.085856406
0.429420379
-0.596937686
-1.335033851
1.148621649
0.745408366
-0.475426559
-0.040133172
1.690145171
-0.867410932
2.156200177
-0.821726770
0.187998548
1.431281378
-0.286819454
0.305436831
-0.719593150
1.135836414
1.080683455
0.413557643
-1.264516168
1.329645701
0.811192461
-2.701513299
-1.643354728
-0.241977319
-0.068782926
-0.888869824
0.304486671
-0.920093524
1.358666521
-1.210482970
0.238477131
1.891099042
0.591581118
-1.027067141
-1.463193556
0.967692407
-0.741193350
-0.389035679
-1.935458253
-0.837375534
-0.744855730
0.754025336
0.760217726
-0.009858326
0.204374699
-1.768345436
-1.617725498
-0.246534262
0.450728826
-0.922954901
-1.041070560
-1.925291906
-1.959915405
-0.187957173
-0.104053540
0.140945147
-0.264781458
0.594683476
-1.475727440
-0.637586826
-1.678506815
-0.527805419
0.150608260
1.203490602
2.097148375
0.826064608
-0.040813172
-0.637555331
0.373452149
0.931657983
0.603729307
-0.401019764
2.191455718
0.126615681
0.009310504
0.784221223
-1.062469665
1.079283864
1.427463129
1.115359418
-1.334917690
-1.400009312
0.822380957
-0.252095098
0.656943377
1.393058713
0.213373148
-0.913376071
-0.088559814
0.307505180
-0.339399660
3.186571269
1.516794994
0.536105645
0.073795708
-0.096201712
0.362095797
-1.308387835
-1.272620624
0.107592771
2.228335744
1.226534643
-0.114300806
0.000020235
1.564487273
-0.555142016
1.296896410
-0.743410177
0.539387786
-0.059259843
0.430974188
0.233531066
0.479870965
-1.332451543
-1.062641467
-0.238841228
-1.649249324
0.378959372
0.087405315
-0.982754836
-1.035229064
-1.091833900
0.543704893
1.448775459
1.072938490
0.188025648
-1.189952273
-0.165498224
-0.587659302
0.079071400
-0.199207625
-0.875293386
0.351786920
-2.198641721
-0.054776753
-0.532882775
2.358903048
-0.324197749
-2.079483751
-1.322023572
-0.004588427
0.222407671
-0.121615765
-0.641843280
1.050043290
0.018174775
-0.907160246
-0.601649463
0.721434897
-0.876827002
0.522424801
0.418180837
1.213300932
0.214403926
1.043511533
-0.394332812
-0.820552595
-0.636402887
-0.323686468
-0.653411525
-0.200607789
-1.406452858
-1.614882344
-0.294952480
0.741390621
-0.268773159
0.402252867
-0.692748293
1.804517766
0.151457707
0.886051654
-0.950453222
-0.445589178
-0.233960919
1.555028229
-1.510602489
0.014413803
1.266986007
0.752796140
0.440738949
-1.560912329
0.558234330
-1.346847144
-0.146712433
0.988100362
-1.356270930
0.986975844
0.127808113
-0.576660137
0.099198961
0.311111105
-1.212846259
-0.953096323
1.511023626
-0.684130477
-0.896435217
-0.566705898
0.606192401
-0.770075044
-0.385584368
-0.015342333
-0.520776117
2.693663202
-1.475749101
-0.545779912
-1.279248062
0.068842806
0.659426648
1.177107397
0.982266534
0.478165033
0.607578072
1.465230845
0.316046840
-0.644169742
0.361147159
0.106029351
0.386127970
-0.456105345
2.018930954
1.891532070
-0.124738061
0.204914948
-0.118592619
0.259710583
-1.547526998
0.178501775
-0.416072012
0.321276858
0.845332649
-0.215062105
-0.719602365
-0.767026660
-0.200145064
-0.404939559
0.308464576
1.252199921
-0.241522143
-0.486997836
-0.353182177
0.839917159
-0.741627658
2.175350038
1.142028955
1.087088647
0.277369697
-0.755897716
0.614508301
-1.558951002
0.456825999
-1.267036122
0.195199841
-0.529806447
0.357107062
-1.657546083
-1.586657203
-0.145906383
-0.367206288
-0.439955485
1.501985576
0.260843240
1.891277690
-1.212382485
-0.948755644
0.496808402
2.173637125
-0.241578432
-1.027837350
0.147575062
-1.250947197
0.696939140
-1.504789035
-0.176216845
0.587275142
-2.090706736
-0.546915349
0.027037456
-0.165862476
-0.290735023
-1.215335671
-2.269186117
-0.819657712
0.601568802
-0.677691668
0.891877520
-1.225113865
-0.002796791
-0.776271778
2.255018966
-0.197909407
-1.492738459
0.971862776
0.817495549
-0.668092049
1.073381296
0.963278658
1.103551303
0.485678943
-1.891081978
-0.682577243
0.895252716
-0.353432599
1.056402430
-0.889084152
0.459312313
0.959212158
-0.100605929
-0.410220427
-0.017027076
-0.828684018
0.825633964
-1.081309142
0.394199418
0.433193043
-1.346712074
0.436282459
-1.171734093
-0.045196799
1.116857367
-0.921483751
1.601388276
-0.394312591
-0.001340814
0.085523378
0.045470198
1.000390336
-1.127625825
-0.223913933
0.654418653
-1.061470528
-0.867816721
-1.766714420
-0.390757303
-1.869309477
-0.016168040
0.220191976
-0.547217155
0.375565944
-0.962160518
0.262158343
-0.203761162
-0.746899784
-0.447665872
-1.469187091
0.091903304
-0.926628229
-0.466694080
0.030568661
-1.166595511
0.310791458
-0.485269301
-0.408841191
1.630085382
-1.674466208
-0.733180398
0.140877610
-0.913777625
0.595027281
-0.860706227
-1.337897437
-0.594693599
-0.285126674
-0.820836823
-0.326196809
-0.700718931
-0.933373138
-2.614838996
0.328371714
1.560877561
-0.270813858
-0.393738104
0.767190453
-1.150637675
-1.122906971
-0.999164965
0.259734038
-0.031204016
0.183504401
-0.864549682
-0.939452147
-0.541352391
-1.160750516
0.577616576
0.946751762
0.942168747
1.133145044
-1.500652229
1.026721413
0.169660561
-0.456672646
-0.661951870
-2.080628887
2.495170814
-0.415146930
0.824233088
-0.463781226
-1.404209192
-0.737810869
1.559017233
0.133853574
-0.936167602
-1.826000943
-2.474197574
-1.186913468
-0.715085697
-1.326538032
-0.164487461
0.054003095
-0.397503246
0.074971511
-0.377785394
0.076235921
0.795235388
-1.660552967
0.285053519
0.150652666
-0.138892731
-0.665047845
-0.182017062
-0.479786913
-0.817133907
-0.196928191
-2.408179961
-1.843691589
-0.539350517
0.704938864
0.818303726
0.371026847
-0.710367341
-1.018750328
-1.179299113
-1.478190789
0.219214094
-1.285756635
-0.431882382
2.675625914
-0.217520531
0.194718375
-0.942910745
-0.867843855
-1.303057630
-0.315303978
-1.103770307
