64
16
8
10
-0.401547503
1.995300666
-0.272194038
0.591534466
-0.319695761
-0.652015525
-0.939912231
-0.225553655
-0.475855010
2.316429629
-0.057632429
-0.699332074
1.321401106
1.054339222
0.053263876
-1.227980255
1.128375127
0.822410657
-0.924223019
-0.500764864
-0.627175292
-1.680483032
0.039614909
-0.275156573
-1.762374329
-0.012823034
-1.243463518
0.268058855
0.400471367
-0.281807138
-1.071482269
1.105474224
-1.666967317
-2.257134143
-0.824216761
0.609251915
1.044559135
-0.589127514
0.410794229
-1.050156591
1.951260843
0.258374585
1.705990086
1.257166856
-0.462374428
0.255447477
0.010267529
-1.407625845
2.356686599
1.860965606
0.584075865
-1.678895014
1.349196464
-1.540381416
1.362174831
-0.423926285
-0.287728984
1.129904649
-0.882710752
-0.209827240
0.087671144
0.208564764
-0.699965949
-0.262378516
-0.687441748
-1.365847256
-0.646249016
-2.253389435
-0.215383145
-0.138130139
0.128512338
-0.051018520
0.042234514
0.538891015
0.449793593
0.346464778
-0.217216954
0.346806386
0.550841558
-0.459605134
-2.271895839
1.260291049
-0.132846660
-0.605502721
-1.773127951
-0.486973852
-0.801164184
0.670777685
-0.012845121
1.078869410
-1.574414503
-0.176926757
0.849178212
-0.210636038
1.453335040
-0.593332375
0.373473470
-1.139201623
0.127734222
1.759265324
0.735773011
-0.493388367
-0.600657659
-0.609507985
-0.230462967
1.931876787
-0.765931156
0.054853916
-0.485132222
0.364368867
-0.061822991
0.590633714
0.123340532
-0.216614537
-0.924690339
1.320495633
0.562415241
0.530830019
-1.165249911
0.734940338
0.036447569
-1.038115513
0.323284898
2.135645410
0.751736641
-1.063063471
0.065827406
-0.296728807
-0.121678926
-0.547114493
-0.195119049
-0.140274308
0.475521040
0.269830306
-1.536203048
-0.549248172
1.812059878
-0.648920547
0.335725701
0.355134820
0.344185285
0.375705905
-0.556834077
-1.982363249
-0.267311736
-0.186605921
-1.243343553
1.112025777
0.056887732
-0.172290271
0.763079596
1.403789454
1.562475023
0.476577147
-1.461036441
-0.693494882
-0.271079018
-0.467632679
1.088969234
1.022298268
1.155425437
-0.151036091
-0.330136955
-2.466956813
-1.269068528
-0.973262751
-0.109874343
0.193677304
-0.210091693
-1.832890934
-1.387906367
-0.296994748
0.865308108
1.934719310
-0.191487970
-0.714611658
-0.610478327
-0.375416467
-0.010571576
-1.216915007
-0.906567338
-0.263447138
-0.726013098
-1.298514583
0.592156636
0.625671382
-0.268919381
-1.684391134
1.733469990
-1.179265078
-2.645305351
-1.289111512
-0.200357920
-0.444698602
0.678832259
1.171532951
0.945158368
0.282341245
0.209824827
0.197915653
0.076096693
0.626718954
0.693992980
1.390194511
0.852505867
0.093618354
0.939299751
0.465502259
-1.704490646
1.046321894
1.557793612
0.996178812
1.464783849
-0.671965839
0.272289380
-0.208272734
-0.934425067
0.642797777
1.036505977
-0.407538202
-0.279257841
0.919796395
-1.202853326
0.057263297
1.094529598
-0.247798414
-0.447458977
-0.718134394
-0.079196819
0.981754337
-0.453861617
0.074932438
-0.667843601
-2.127980938
-1.394749210
-1.047474385
2.630552049
1.227538813
0.427835356
-0.078404616
-0.205416340
-0.105016089
-0.641291564
-0.105671964
-1.360549144
-0.972657380
-0.591455233
0.866483660
0.965573336
-0.053575524
1.140889514
0.866699219
-0.756468661
-2.262688213
-0.629217098
-0.499554562
1.846977327
-1.300256863
-1.385273537
1.614664513
0.286292575
-1.538760824
-0.392318872
0.295854543
0.810663134
-0.191783573
0.391434191
0.355389178
-0.064147978
1.054733890
1.650429600
1.187622981
0.496616514
0.130507009
-0.960216664
0.318939537
-0.218777478
-0.776812190
-1.371437594
-1.414403221
0.974666322
-1.283975864
1.604582217
0.563154045
0.453211261
0.713345196
-0.165609691
-0.292070782
-0.106518968
0.323436786
-0.222792718
0.644192840
0.749183052
-0.757160968
1.088398554
-0.491078871
0.431817081
-0.235310560
0.609973436
0.994763287
-0.008806705
1.321059741
-0.777657406
1.598816110
-1.411528559
-0.994137354
-0.301187657
1.007251115
-0.971506803
-0.085401641
1.014544399
-1.800701546
-0.776169313
-1.112693079
-2.156605436
-0.606289376
-0.370111500
1.056597006
-1.407734024
0.331472295
-1.613818149
-0.877578170
-0.813598530
-0.178642739
1.052263744
-1.020899201
0.866296675
1.059754100
-0.467246300
-2.181894750
1.184470578
-0.984705270
-1.952714990
0.738635109
0.364695554
-0.969931157
-1.371593577
0.536445268
0.718313774
1.145216475
-0.066041973
-0.081949352
-1.381963195
-0.937254509
-1.983926522
0.223776741
-1.921992798
-0.626990598
-0.700982739
-0.107165498
0.282517783
-0.548000397
0.372411743
1.315471506
-0.833988224
1.106182166
-0.391484624
0.700515825
-0.279720337
-0.354719605
0.591053030
0.198149809
-0.091928389
-0.308820767
-0.048040907
-0.257067094
0.446964388
-0.880698223
-0.742890873
-0.648301131
-0.587819069
-0.277114071
0.181456407
-1.822245635
-0.085214077
-0.545682993
-1.854884530
1.381545751
0.426885019
-0.799474982
0.518584996
0.340169763
-0.725138410
-1.542629227
-0.051591933
0.564029386
0.418381486
1.116191193
-0.682325162
0.232876285
-0.137025032
-0.619063541
-1.438590343
0.639600688
0.444879631
-0.646714074
0.450637063
0.410023220
-0.426048901
0.170623614
-0.358941739
-0.215887749
0.551026078
-0.467736463
0.098351307
-2.958696150
-1.203682943
-0.122242409
-0.967794853
-0.729119533
-2.794000097
-0.954838367
1.342678109
0.184930248
-0.457072385
0.494275625
0.147848930
-0.541728709
0.406559472
0.354211025
-1.562505088
1.118480029
-0.494033392
-0.180929634
-0.456905558
-0.243629094
-0.796508638
-1.413549915
-1.654770090
0.278828403
1.418871114
-0.037434436
0.493415568
-0.105863283
-0.683186194
-0.528784089
0.129620940
-1.168111287
-1.151181277
-0.311877436
0.483838836
-1.057914984
0.149748435
-0.386264265
-0.775080967
-1.561960191
0.518592760
0.237758095
0.582985489
-0.859004815
-0.315212815
-0.792151111
1.349943714
-0.926137763
-2.248391530
-1.096866964
-1.064437918
0.978831583
1.454099442
-1.004815307
1.007420423
1.160667884
1.452155111
-1.892350048
0.092720557
1.964762570
0.493641769
2.980087531
0.235135523
1.071456214
0.326579021
-0.944186298
0.572793266
0.199255743
-0.636126057
-1.438257960
-0.455656947
0.538835173
-0.194854244
-0.159423869
1.204582976
-1.401557642
-0.992786696
0.308610621
1.773024862
-0.243170724
-0.389427442
-0.008868102
0.588091996
-1.011595737
0.342143762
-0.182617773
0.290021290
0.386651524
-0.632171250
-0.246035278
-1.207697513
-0.457045368
-0.861568838
0.987957967
2.647232366
-0.467698809
1.985944411
-0.867219761
-0.558438099
-0.407487900
-0.906507940
0.645996459
0.559847733
-2.254359412
0.617862455
2.496822575
0.926181040
-0.401493023
2.240074464
2.306572469
1.264839690
-0.377985418
1.617951436
0.091132871
-0.920994454
-0.090598679
2.267130217
1.293019995
0.698122432
-0.346535846
0.942082049
0.251794801
0.913504243
-0.643610959
0.154991373
0.645051071
1.047175724
-0.800981613
0.751552197
0.084117733
1.644948683
-0.579958072
0.322369039
1.575063177
-0.004669341
-0.252119785
0.259038089
-0.178041079
1.008694460
0.624447716
0.285570522
0.674510092
-0.302073012
1.125401119
0.026117593
-2.471314165
-1.542777198
-0.487998298
-2.317768270
-1.544031716
-0.987664588
-0.014077078
-0.574199871
-2.231767097
1.481340926
0.578099214
-0.124660526
1.140854819
0.685510846
0.100759985
-0.892436899
0.166447428
0.307117750
-0.280803412
0.859474098
1.204430547
-0.028705982
-0.582676587
1.101273353
0.931273437
-0.008373876
1.959551556
-1.417534327
0.663897853
-0.181254528
-0.892804420
-1.343210443
0.120045317
-1.659492468
-0.720673903
-0.235128779
-0.817168033
1.281050018
0.634857523
1.517645814
1.397456472
0.088975475
-0.171184548
-1.748265846
0.043666708
-1.142293175
1.760347736
-1.409381708
-0.436169157
0.049634714
0.710225461
-0.900919557
-1.668311750
0.959907447
0.134662260
-1.645446276
1.024167621
-1.337666778
-1.351971666
0.951151751
0.626058802
0.985292486
-0.289854019
-1.306800470
-0.697607673
1.519315186
0.048997877
2.143121895
2.568934470
1.773011934
-0.774668225
-0.871373630
0.523322107
0.604957880
0.983098776
-1.329293862
-0.849815789
0.940063907
0.131606774
0.411400626
0.902965231
-0.417010553
1.994071481
-1.081189639
0.493544296
0.572562065
2.431563764
1.091750942
-0.751282518
0.848778895
-0.686600760
-0.000873535
0.680257828
0.071171664
0.661095560
0.465305737
1.274986278
0.333651849
1.052491748
1.105651148
1.930471928
0.479884047
0.999711079
-0.057681623
-1.549116592
-0.549207651
-0.050171541
0.518327940
-0.710462513
-0.910231036
1.267795818
0.978034126
1.500446294
0.296075875
-1.322239925
-2.159634348
-1.421675517
-0.740606724
-0.493070237
0.354187091
0.725621362
0.140735910
0.066008141
0.449508568
0.825420521
1.264435085
0.162821262
1.654963899
1.073050403
1.210723620
0.773477443
-1.131853681
1.827167940
2.054514522
0.602036597
-1.157617464
0.237839369
0.958507748
1.258582014
0.438735448
-2.810180539
-0.177326705
0.195201806
-0.872914518
-0.351688383
-0.632130776
-0.620739343
1.689878475
-1.311950598
1.481245518
0.346447533
-0.556268465
2.402848284
-1.050176290
0.930645026
-1.477422812
-0.366636875
1.327903791
0.688055805
2.506436416
-1.019307576
-1.167678409
-0.477286991
1.147306758
-0.364394599
-0.318511276
1.641117638
-0.480424709
-1.031631043
0.326974969
-0.973052263
1.356337058
-1.192933931
1.263887196
0.936993349
0.359021483
1.214773124
-0.794636206
-0.769273786
0.995568452
0.343086573
-0.080543509
0.764186653
-1.706519678
-0.274226884
0.037259135
0.587156477
-1.406336186
3.510686952
0.404040096
-0.684237623
1.609387857
0.086141627
-1.785231734
0.071613407
-1.329896162
-0.815849203
-1.029156934
-0.334747230
0.574219158
-0.177196565
-0.900421353
0.066249472
-1.398703874
0.421871782
0.199237085
-2.168059093
0.284356335
0.742183882
1.060856528
0.798949578
0.867864237
0.296320420
-0.536021329
0.489024840
2.546961468
1.025069786
0.439094170
-0.324839703
-0.356462350
1.735404161
-1.335877097
-1.478102307
-0.486479721
-1.524001754
-0.416505620
-1.346459421
-1.459643659
0.162904901
0.930557132
0.493818573
0.872169816
0.646065440
-1.429935224
1.362849374
2.202740912
-0.236881848
0.044199305
-0.500054361
-1.039703277
0.561393504
0.242420108
0.145921862
1.190991658
0.648965631
-1.862508151
0.974615484
-1.841217302
0.226981927
0.250560693
-1.441010888
0.134123847
-0.795094718
1.605770754
-0.364874076
0.991540729
0.624119885
-1.643184139
0.220154214
0.595192776
-1.229621794
-1.139751823
-1.375716922
-1.272864399
-0.274947146
-0.813975460
0.344962647
1.379364272
-2.065108442
-1.303180778
-0.140588398
2.171812478
-0.943718988
-0.120273079
0.364014190
0.929507072
-0.289220518
-1.402122436
-0.419954415
-0.887934709
0.147007077
0.848756227
-0.327629159
1.555053053
-0.946441224
1.909901877
-0.348190795
-0.519955665
-0.171979679
0.258629772
0.130894675
0.286726525
0.643838428
0.735124644
-0.023201081
0.288512017
-0.543120542
0.512141990
1.498644589
1.144998871
0.127576402
0.869991613
0.424046083
-0.688286608
-1.133734382
-0.362392232
-0.896101268
1.555880634
-0.640294548
0.885283875
-1.324423227
1.526781905
1.072785428
1.045009492
-0.117261267
-1.529709375
-1.149731157
-1.418724919
-1.137749826
-0.641831868
0.454964243
-0.803318688
0.656720143
-1.176117666
-0.165040421
1.063120447
-0.346291679
0.210329254
-1.200552760
1.173502911
-0.069051792
0.455363964
1.242056210
0.822429519
0.867659646
-1.867122926
2.078238131
0.816761375
-0.434773688
-1.248516809
1.317428290
-0.977644225
-0.045914555
-0.990225923
0.504705418
-2.047020499
0.300508414
0.118105495
-1.607523574
0.240756170
0.433687932
0.529831512
-1.097165016
1.061841702
0.355649170
0.084528220
0.558187108
-0.105207804
-0.463627772
-0.867157907
0.932306642
-1.957633764
-0.104871091
-1.637525919
0.012602253
0.764135788
-0.000405785
1.056131455
0.649104538
-1.974139881
1.442711833
0.821531613
-0.265531247
-1.182092189
0.939972591
1.223443210
0.702118517
1.622548320
-2.733131489
0.590489933
-0.995153030
0.459137379
-0.819318291
0.028243792
0.001835825
0.194732893
1.265114245
-0.572422591
-1.455564341
1.184199657
0.567621251
-1.517255440
-0.139810997
-0.002688577
0.987221175
-0.579603205
-0.535896430
-0.098970442
2.335358617
1.049430922
1.310250709
-1.311166634
0.285103150
-0.847291256
1.231937195
-0.504929306
0.152164873
0.347120315
0.925385996
0.391267852
0.903447766
-0.152059820
-1.020078379
0.480759846
-0.643180208
-0.729498458
0.327937598
-0.094613173
0.106807537
1.336641016
-1.642466962
-0.513061426
0.761922494
1.330653007
-1.133338751
-0.151916594
-0.223280481
-0.274239918
-1.684833281
0.252967893
0.033459577
0.097535853
0.028246035
-0.849955331
-1.937595702
-1.060734562
-0.988412324
-0.647994287
0.646586928
0.868103436
-0.437241656
0.462509342
-1.377453795
0.044796017
0.367331059
0.443657822
-1.764240422
-0.513935783
0.313142646
-0.119631795
0.519156041
0.976251186
1.505888679
-0.814483314
0.238799430
0.629241292
-0.159502162
0.797247734
0.306999917
2.373747041
-0.482186732
-0.186897565
-1.728344987
-0.460058429
-0.704458145
0.476848212
0.676904135
-2.022718463
-0.767981670
0.087897879
0.646856324
1.896828312
0.178031829
-0.286737323
-2.992216648
-1.511736604
-0.376655322
1.016979299
-0.140600648
1.962048627
-1.926229627
-0.364538373
0.047891790
1.179378924
-0.419680814
0.582119896
1.911969979
3.235878446
0.309389768
2.158881500
0.474524499
0.184410875
-1.068098392
-2.747048224
-1.332403842
0.023920536
-1.120773494
1.125232919
0.790054798
1.132767026
-1.817244222
2.260070891
0.853276263
3.229420317
-2.990978033
-0.075187816
0.645966781
0.954453278
-0.032885556
1.056555752
0.968097456
-0.405719101
2.595636271
0.014687884
0.152631317
-0.167728173
0.621763369
-0.282166212
0.835231827
-0.168087255
-1.814857189
0.435624188
2.083619055
-0.304972320
0.310116068
-1.608387617
1.023068982
-3.109433265
-0.437251260
-0.402020397
0.878597623
-0.086704780
0.346317883
-1.753800880
0.340995141
1.874493184
-0.333546018
-1.629064102
-0.271076165
0.708020944
-1.920165193
-1.815115128
-0.118728125
0.239262773
-1.951535735
-0.100034046
-0.319404510
-0.533121252
-1.330931676
-0.104064986
1.009637639
0.467056486
1.005057564
-0.280595013
-1.461164621
1.629402604
-0.361305121
-3.139277557
0.948774607
-0.270186542
3.102420189
-2.584686811
-0.796035205
0.438401054
-0.818192866
-0.647307084
1.266240750
0.049370693
-1.103231170
-3.229409911
-1.542488481
0.196401897
-2.942706702
-1.525393096
0.745354561
-0.317249821
0.032486454
-0.047544121
1.326281269
1.989094895
-1.436128044
-0.476542952
1.514305967
-1.632854882
0.078824126
2.361057125
-3.789716252
1.102954147
-0.468398339
1.952533799
-0.279196009
1.747761830
1.842663637
-2.680951292
1.315106716
-0.759006405
0.861894108
0.800536950
-0.478955905
-0.115374208
-1.222471826
2.997779828
-0.839949688
-3.292795957
1.191797674
-2.031481703
-2.290108469
0.692558868
0.078335789
0.419170044
3.633845686
1.607643949
-4.841052977
3.786980327
1.767998550
-3.875455693
2.264096769
-2.005698084
-1.251370564
1.305246709
-2.263610496
-0.917271787
-0.844967746
-2.528674671
-1.702782022
-1.393133368
-1.498297277
-2.605820447
-1.192195410
-2.069555463
-0.827609668
-1.065907185
1.878868790
0.676046850
-1.692020373
-0.407606726
1.191680806
2.161870728
1.446585400
1.058912644
0.051138388
-2.137594473
-3.116227698
1.358004847
-1.819858899
2.356582105
-1.447963813
-1.155913950
-1.276527512
0.536269992
2.522458856
-1.280543920
-1.274228121
-0.743474250
-2.232089982
1.386393719
0.027558866
-1.847812501
-1.913730878
-1.683923154
-2.060928416
-1.347343961
1.036766426
0.455048942
2.114444886
0.781283440
-3.903865188
-0.678246330
-1.310783902
-2.211707136
-1.846362655
-2.080119646
4.452330073
-2.592152764
-0.243930063
-4.585343592
1.650239888
1.419000382
0.182919934
-1.241566820
0.916222740
