64
16
8
10
-0.243513823
-0.768613359
-0.565217548
0.419096613
-1.437333716
0.265590414
-0.320776029
0.293834177
-0.908005462
1.623285931
-0.104641137
0.314940945
-1.167827575
-0.027928088
3.508716961
-0.103405966
0.619666556
0.173045935
-0.123236682
-0.733267854
-1.247120682
-0.016465493
-1.283629956
-1.123888418
-1.026172415
0.447447732
0.962784141
-1.057311757
-0.914945788
0.115769847
0.755469836
-0.863235587
-0.931969932
-1.231901213
0.735963236
-0.323832087
-1.519449160
-0.348938553
0.032279801
-0.269912300
0.052265676
1.292055831
0.361957120
-2.122432019
-1.136560645
1.811981826
-0.291877950
0.342640849
-1.079975914
0.506943590
1.329071559
-0.786819847
0.630040055
0.049284686
-1.240000921
-0.319375362
0.931051178
0.760111038
0.350636291
-0.386623265
-0.063369790
-1.291813444
-1.188197283
-0.416181506
-0.797010554
-0.047276232
-0.402326035
-0.450445636
2.050286453
0.040425216
-0.084854629
1.750759476
0.108178887
-0.481525160
-0.547078252
0.140038792
0.584401215
-0.837340375
-0.355200522
1.211861756
-0.915740691
-0.678044589
-1.400702482
0.233586821
0.151846863
0.738215496
-1.220903011
-0.708564274
-0.146759065
-0.289013601
-2.637537788
-0.721060081
0.887734782
-0.079262554
-1.014517813
0.082372253
-1.291150592
0.843262202
-0.422543302
-0.579889392
0.590921868
0.535157824
0.296883304
0.615663881
-0.103255673
2.695366507
-0.854370791
-0.346641303
0.767634572
-0.335580640
0.884229050
0.403211269
-0.516331648
-1.096698111
-1.097376712
-0.895593114
-0.912745658
-0.220277234
0.417225794
-1.129508283
-0.651614765
-0.363197394
0.142742229
-0.820292638
0.098881126
-0.153185906
0.757379630
-0.364167844
-0.483905347
1.236506749
0.314909940
0.042955539
-0.498566084
-1.015333119
1.640770532
0.265337379
1.355233099
-0.407523580
0.058239599
-0.596996666
-0.812580261
-0.191171288
0.035193491
0.631350055
-0.451650562
-0.312093243
0.262236330
-0.226665864
-0.125406586
-0.596785005
1.326515401
-1.398511349
0.362906834
0.512642543
0.134630908
-0.313244283
-1.101496333
-1.458313910
-1.587422573
0.845950283
1.400880699
-0.595865777
0.921049124
1.121434667
0.476319758
-0.152142658
0.881211558
-0.809200224
-0.677961678
-0.415013087
0.352153435
0.125266976
-0.688651585
0.004228890
-2.004470757
-0.907097145
-0.637901497
-1.423548926
1.833777313
-0.348830430
-1.452343835
-0.206824493
1.316910024
1.532095703
-1.178733494
0.470380059
-0.291354085
0.552346467
0.638101236
0.566995695
-0.532369714
-0.705135292
-1.024855223
-0.283450964
1.582502186
-3.119861293
-1.070870756
1.140399263
0.848464661
-0.876862284
0.039215786
1.179936129
-0.024778761
-0.296490095
-0.529375522
2.198846184
-0.565655102
-0.614760654
0.417716874
-0.382074813
2.104470499
-0.478389682
-0.692282897
-0.546538331
0.788393247
1.886031956
0.635225876
-0.900687313
-0.394581686
0.253621834
-0.432194612
-0.274787542
-1.112493743
-0.985862912
-1.093756836
-1.212176751
1.282217985
1.171480084
1.059114607
0.486817495
-1.145926623
-0.469078916
1.241620312
1.257292610
1.072484016
-0.196573832
1.025835285
2.374549413
-1.328357554
0.759522042
1.096881158
0.506533132
-0.582177540
0.231439469
-0.261244899
-0.753066956
-0.170636026
1.428301432
0.372124847
-0.794144256
-0.235621487
0.356007605
0.478722374
-0.073377295
2.155202819
0.042859697
-0.053766412
-0.356995586
-0.436625147
2.097643016
-0.750174993
2.392783688
-0.569866082
0.547592327
-0.146430710
-1.606059568
0.755840786
0.874714101
0.529722707
-1.581217003
0.121076147
0.018342074
0.379383569
1.616000255
0.465564969
-1.420200365
-2.187619213
-1.374987826
-1.242741961
-1.625468331
0.237929441
1.411575084
0.295633681
0.189010221
2.382952265
0.157753617
1.595220558
-1.132468160
-2.101351193
1.067942824
-1.241195880
0.861524815
-0.684918764
-0.247373551
-2.206183341
-0.767508047
-0.893881906
0.041699498
-1.688993704
-0.837982442
1.029137768
-0.582710818
1.526174701
-0.645885953
-1.789619033
0.418770015
0.992130937
-2.528486472
-0.474276807
0.140613677
0.177228884
0.501305143
-0.145257962
1.384236650
0.386289903
-1.452725834
-0.010146013
-1.867771298
-0.974365698
0.771550809
0.895044242
0.653222759
1.965769344
0.520906511
-0.648517202
-0.325141104
-0.609802132
0.999981701
-1.245541875
-0.469762717
-0.938121162
-0.423516229
-0.166548983
-0.197742919
1.038685934
-0.506492229
-0.671545763
0.078178002
-0.795622888
-1.322724794
-0.149878785
-1.378975582
1.461519933
0.767262223
-0.064958230
-0.539406870
0.181758599
0.608170123
-1.424622573
0.519631895
-1.412001045
0.275281627
-0.484497640
0.558407549
-1.478127095
-0.172537956
0.160199051
-0.551923997
1.511524189
-0.309764826
-0.364049494
-1.266730702
-0.754256428
1.535567970
0.141732926
-0.661220100
-0.067754160
0.237315874
2.130869820
1.181885508
1.118107368
1.028221114
-0.239941627
-0.162468249
1.201465753
-1.694849478
-0.210487767
-0.366758950
-0.553907225
0.103515957
-0.127826726
-0.973905300
-0.176783383
0.113051654
-0.598723282
0.103825428
-0.118031643
-1.273636838
-0.552197206
-0.498420269
1.858706157
0.991697191
-1.570632692
-0.062194486
-2.084470862
-0.123305501
1.357460567
0.461013237
-1.929280050
-1.791190191
-0.161210761
-1.449258810
0.372656638
-0.947246515
1.981617608
0.310582739
-1.636960314
-0.086852089
0.286141758
2.058489472
0.113717323
-0.598614443
-1.248906018
-0.525026000
-0.250954253
1.733774713
1.398318441
0.888599503
-0.108684354
0.573317275
1.771755918
-1.888056078
-0.539019305
1.080293228
1.293551325
-1.832433447
0.299232901
-0.462811154
-0.291431382
-0.343537337
-0.155215145
-1.086028984
0.798688306
-0.987475841
-0.241955584
0.811225368
-0.907642353
1.054575879
1.014115139
0.959529546
-1.160403088
0.044535233
0.930144567
1.398112104
0.928300537
-0.321596270
0.116013104
-1.962016712
2.016939972
1.345033057
2.355788958
0.141227675
-0.898265179
-2.406942532
-1.244177766
-0.406962225
-2.168572673
0.047058855
-1.575507013
1.275567157
0.550522167
0.254420429
0.214481495
-0.638532743
-1.356803673
-1.773618430
0.620028144
1.182462490
2.379593141
1.814567083
-0.118027721
-1.282770433
-2.105906274
-0.549225200
-1.386145092
0.346805693
-0.847534807
-0.588814299
-0.215604948
1.717464896
-0.591196920
0.484170688
0.926122686
-2.399300202
2.163304966
-1.443167127
-1.611910121
0.692056770
-0.612872453
-0.174519357
0.799221953
0.480928445
-2.735379133
0.553379097
-1.089314568
0.039782939
1.899354819
-1.959293391
-0.649462842
0.700934571
-0.245666442
0.307738733
-0.898602288
0.908453697
2.116574495
1.413549814
1.154047016
0.821106695
0.638278780
-1.349913650
-2.006291157
1.797989687
0.344448436
0.290443743
0.339029253
-0.614215362
0.411616431
0.575222339
0.543772335
1.385065398
-0.179160747
-0.107202960
1.257906840
0.220521557
0.770714375
0.571123936
-1.462968637
-1.137747813
1.986339904
0.877566284
-0.873481055
0.741187356
0.479594490
1.332102645
-1.304681807
-0.561482852
2.701657234
3.222488101
0.040271830
0.089369982
-0.295546994
1.145831829
-0.098140639
-0.933669581
0.794038480
0.632491989
0.638323321
-1.463699443
0.824575482
-1.662521637
-2.518420829
-1.308936981
0.155074083
0.060688486
-0.006378678
0.452448822
-1.767300765
-1.082586350
1.434081968
1.979006736
-1.347223719
1.022333250
-0.272582118
2.133074146
0.160027542
-1.184977252
-2.042686704
-0.382953616
-1.733017984
-0.934635398
-0.541924011
-0.348972010
-0.418100748
-0.346560914
-1.178374045
0.755880148
-0.626390837
-1.976895584
-0.323841884
1.143863855
1.479756639
-1.283776771
-1.316595655
1.949453166
-0.625464445
-0.333945020
-0.870231636
0.014863663
1.112151394
-0.663106689
0.188625695
0.421941181
-1.397771448
-0.692370956
-0.372036338
1.134535533
0.405158944
-1.751305745
0.404989807
-0.684269338
-0.001835826
0.810699940
1.192567065
2.338932752
-1.435666392
-1.695924543
0.230169065
1.590662698
-0.514425772
-1.857527447
-1.221748308
-0.443681278
0.433151387
-0.838909781
-0.825413734
0.359461194
0.064285452
-0.015821046
-0.265144136
-0.189322673
1.763397080
-0.548070337
-1.814691708
0.224380200
-0.882094595
-0.036433323
-0.106446143
0.508735564
-1.459151725
0.174723430
1.440893960
-1.272822823
-0.672574992
0.689401776
-1.071768563
0.550753177
-0.920158906
0.633696944
1.690518758
0.762249661
0.635687652
0.636409058
-0.216977055
0.438843161
-0.539095849
1.002417573
-0.286595077
0.030055641
-0.475896483
1.939940298
0.797329941
-0.116208608
-0.283074776
1.680865616
0.892228341
0.919940252
0.364382698
0.878754656
-1.203384565
-0.639207753
-0.473624282
-2.241528995
-0.986495930
0.303942600
1.128121832
-0.067839237
1.692233385
-1.686405863
2.683941441
0.076997169
-2.286856358
0.971004087
0.771919065
0.748989639
-0.429883643
-2.086741752
-0.190992571
0.157097667
-1.834255856
-0.964628664
-1.948548307
0.207460705
-0.123975405
0.638604523
0.544633175
0.051805077
0.085406986
-0.458832239
1.549402277
1.027294342
0.887289938
0.295830098
-0.805114328
-0.244165862
-0.778593763
1.202792603
1.237152993
0.805588597
2.763365737
-0.690912769
1.797257906
0.817182524
-0.862209526
-1.219669401
0.987850164
0.717754899
0.681139341
-0.864978577
-1.532187076
-2.379520376
2.678383786
1.104087572
-0.533088074
-0.463548889
0.706195816
1.840371802
0.757744649
1.727702256
-0.021849526
2.053084664
-1.000729496
0.874262342
0.478733044
0.413133496
-0.435759761
0.376985550
2.069038557
-0.929334197
-0.161229546
1.761599237
1.082212469
-0.098417059
0.639688308
-1.449947820
0.401800262
1.134693593
-1.276278758
1.664424369
-1.194562684
0.163374821
-0.832555254
-1.241885582
0.649510042
0.032887354
-0.313105016
-1.052503699
1.231574779
-2.257614641
1.007663837
-0.526559417
0.360410935
0.315373550
-1.986506022
-1.161520316
1.076941423
-0.696492771
-0.749917495
0.204166689
-0.386941209
1.633868002
0.689309789
-1.212704229
-0.146335122
0.846865113
0.837036933
0.676202018
0.567203625
-0.577874414
-1.220634074
0.638234793
-0.305166506
0.831075931
0.185929804
-0.406106472
1.343394170
1.072101967
-1.705097181
-0.306188566
-1.227770751
-0.294342118
-0.862610765
-1.582462115
1.073953222
-0.152139614
-1.496271313
0.196581456
-0.132406915
-1.082101922
0.285232392
1.831380262
0.354273722
-0.503810456
0.164685148
-2.195144811
-0.987532359
-0.642804275
-1.652419321
-1.106387553
-0.232824706
0.647857401
-1.140570211
-0.041870359
0.187194073
-3.097789454
-1.322541738
0.271632328
1.099650840
1.239222516
-1.256851728
0.780842137
1.500148423
-1.488465343
0.369044702
-0.705017923
-1.712958068
-1.876253569
1.319086076
-2.539008815
0.101786850
0.130368069
0.491592792
0.224944673
0.982949478
0.809689685
0.780743643
0.220972248
-0.892434607
-0.726232107
-0.399230701
-1.236644089
-1.261578518
-1.745912328
1.543301635
0.062790522
0.993254631
-1.667076267
2.182110498
-0.861140749
0.710918402
0.898212934
-1.007269233
-1.894493791
-0.662793812
2.066971504
-0.250954948
0.902325657
1.341646305
-0.034697717
0.444300157
0.257891723
-0.988033470
0.224093356
0.041423089
-0.397601676
-1.873306183
-1.587658813
-1.644733179
-1.982490480
0.782355376
-0.282490816
-0.433284236
1.494167523
0.916323485
1.212685670
-0.310048264
-0.434463560
-0.245379975
-1.044244534
-0.757874954
-0.633634230
1.121628385
0.352208032
-1.433384661
0.950508231
0.133360188
-1.838841368
-0.099841120
-0.440494678
-0.942250115
1.604311075
-0.972384987
0.613427123
-1.004559493
-1.724988412
0.654948073
0.069917460
2.147657782
0.886775285
-0.934714468
2.408902057
-0.705750534
-0.952570618
-0.446799167
-0.384881024
-0.245581054
0.255037196
2.138756750
-0.528227360
1.330973306
-0.475386469
-1.480347833
0.354951795
-0.577871551
-0.047978301
1.050775469
-0.221052024
0.859919338
0.902513629
1.455067626
-0.365763508
-2.362197038
-1.766924572
0.027594430
0.007973097
-0.274355987
0.265582284
1.121703309
-0.055520898
0.569763730
-1.633688365
-0.795763558
1.800133082
-0.487068204
1.515054300
0.981256067
-0.417408431
-0.044804457
-1.973678042
1.544700169
0.353319032
-1.406118671
0.134998237
-1.250693903
-1.705814941
0.121900909
-0.965862451
-1.767668838
0.637140353
1.781822598
-1.180629741
-2.144387612
0.178633832
0.973703493
0.128776124
1.994446286
0.894146758
1.329876787
-0.835177017
-0.398328788
0.637615760
-0.684921461
-1.368801488
-0.871575376
-1.021864881
0.713225188
1.810543922
1.370718429
-1.671256252
-0.233874630
-0.419872619
-0.826726587
-0.786391839
-1.226220848
0.063947048
0.017693942
0.494776128
-0.713596777
-0.080903573
-0.793673833
0.077887864
-0.041018418
-1.237993780
-1.115664345
1.354206304
-0.759834583
1.083058933
-0.413640628
-0.845053703
-0.094868413
1.289235544
-0.609704081
-0.080740927
-0.667202565
0.304175124
-0.340444031
-0.584932562
-1.125538162
-0.125266974
-0.702669820
-0.117868789
1.159754661
0.595391983
1.303835892
-0.391366133
0.355909695
0.465536418
0.717982904
-1.277104085
-0.473946480
-0.733052239
1.125592787
-0.194794899
0.440295720
-1.743808755
-0.000356139
-0.764857386
2.107226415
0.075342223
0.915266435
0.301395940
-0.277380158
3.005916915
-0.090603921
-0.708371638
-0.430332665
-0.306387090
0.210536031
0.790744151
0.822378340
-1.975178163
-0.671912873
0.689309624
-1.327286192
-0.921633035
0.505398007
3.832281636
0.641539842
-0.298360484
2.647278587
-0.693528731
-3.479846203
-2.220672794
1.344085143
0.108729978
0.178540202
2.511049182
-0.338796285
0.888110260
-1.353483989
-1.330877009
0.577514185
-1.503124099
1.413483167
-0.338568076
-0.104664268
-0.166491217
0.531946699
-0.535125656
-1.848637428
2.239336987
-1.133283921
0.155620726
1.419390597
0.371524706
1.020946985
0.260888615
-1.199609125
0.724886160
0.987450627
1.350705666
-1.879577040
-1.889035835
1.733736724
-2.601784526
-0.941671689
-0.268114123
-1.119966455
0.895882913
0.316432768
0.556613423
0.724701446
-0.703569245
-0.659503110
-2.759383908
-1.272508889
-0.678236754
3.451712730
-0.389339761
-0.307125757
2.546662635
2.084270422
-0.903706420
1.085073866
2.039786740
-0.544661099
-0.527485800
-0.856965299
-0.496650443
-0.414241057
2.010279522
0.586278162
-0.823534826
-0.678837044
-2.617036366
-0.883904093
0.810064499
-1.959534115
0.136249882
1.348700467
-0.978600173
1.500886265
2.913623503
0.050362831
0.941131607
-1.712778580
-1.193798528
2.015370398
-0.243473268
-0.516840035
2.518774157
0.772030184
-0.157474785
-1.003540502
-0.510227760
1.412991629
-0.184066750
-0.350897440
-1.229501620
1.104296761
-0.462160386
0.074627024
1.327320034
1.184861152
-0.092849060
-0.179942975
3.336315992
-0.649035522
2.072390377
0.144520736
1.477872084
-1.362203535
0.722578410
0.481794667
0.181833891
-1.744886116
-0.569494975
-0.075838819
1.157473410
0.361544417
1.251166731
0.105477356
-0.061840225
-1.361977635
-2.233835351
1.558957353
0.725122683
-0.683749668
2.149925513
-1.768211962
-0.757542737
2.241981982
0.150137472
-0.668772124
0.379305056
1.729618757
0.741711383
-3.958001911
-2.361053879
-1.165037635
-1.900447650
-1.032896438
1.312352648
-2.740208510
2.521509305
-2.377485098
-4.914079015
2.548662969
-2.414508546
0.628826678
-0.498849624
0.148846554
1.714335073
-0.361907917
-2.360576688
-1.249153658
-0.130751952
-2.312873296
0.614491696
-1.429659292
-1.725352288
-3.810329930
-0.054289798
0.204089887
-1.283911817
-1.295936915
0.542082786
0.200880103
-2.041383618
-2.335472977
-0.569385701
-0.379687946
0.477420433
1.157016137
3.143203757
-4.328840535
-0.297109451
-1.670863572
0.534220041
-0.327405929
-0.077477640
-0.542149112
-2.161529562
0.171992216
1.068033575
3.074827050
-3.922700413
0.107138290
0.682420341
-0.651690862
-1.797623734
0.360583456
-4.860559417
-0.537180326
-4.892326252
1.101195860
1.845942325
3.167923945
-2.282780003
-1.082275285
0.254375862
-0.693624568
-1.273621674
-2.112202717
-2.127892668
-0.150745715
-0.026713123
-1.744978095
3.562560999
1.522813711
-0.022581386
1.494505444
-1.212593948
